digraph Tree {
node [shape=box, style="rounded", color="black", fontname=helvetica] ;
edge [fontname=helvetica] ;
0 [label="median_step_width <= 2.9\nmse = 1.2\nsamples = 129\nvalue = 4.5"] ;
1 [label="median_limb_duty_factor <= 0.6\nmse = 1.0\nsamples = 49\nvalue = 3.6"] ;
0 -> 1 [labeldistance=2.5, labelangle=45, headlabel="True"] ;
2 [label="step_length2_iqr <= 1.2\nmse = 0.7\nsamples = 45\nvalue = 3.4"] ;
1 -> 2 ;
3 [label="center_time_secs <= 649.8\nmse = 0.5\nsamples = 4\nvalue = 4.7"] ;
2 -> 3 ;
4 [label="mse = 0.0\nsamples = 1\nvalue = 3.1"] ;
3 -> 4 ;
5 [label="step_length2_stdev <= 1.0\nmse = 0.1\nsamples = 3\nvalue = 5.0"] ;
3 -> 5 ;
6 [label="mse = 0.0\nsamples = 1\nvalue = 5.6"] ;
5 -> 6 ;
7 [label="mse = 0.0\nsamples = 2\nvalue = 4.8"] ;
5 -> 7 ;
8 [label="median_step_width <= 2.8\nmse = 0.4\nsamples = 41\nvalue = 3.1"] ;
2 -> 8 ;
9 [label="grooming_number_bouts <= 14.5\nmse = 0.1\nsamples = 20\nvalue = 2.8"] ;
8 -> 9 ;
10 [label="mse = 0.0\nsamples = 16\nvalue = 2.6"] ;
9 -> 10 ;
11 [label="mse = 0.0\nsamples = 4\nvalue = 3.4"] ;
9 -> 11 ;
12 [label="nose_lateral_displacement_iqr <= 0.1\nmse = 0.3\nsamples = 21\nvalue = 3.5"] ;
8 -> 12 ;
13 [label="mse = 0.1\nsamples = 18\nvalue = 3.4"] ;
12 -> 13 ;
14 [label="mse = 0.7\nsamples = 3\nvalue = 4.8"] ;
12 -> 14 ;
15 [label="avg_base_tail_lateral_displacement <= 0.2\nmse = 0.1\nsamples = 4\nvalue = 5.3"] ;
1 -> 15 ;
16 [label="limb_duty_factor_stdev <= 0.1\nmse = 0.0\nsamples = 2\nvalue = 5.6"] ;
15 -> 16 ;
17 [label="mse = 0.0\nsamples = 1\nvalue = 5.6"] ;
16 -> 17 ;
18 [label="mse = -0.0\nsamples = 1\nvalue = 5.6"] ;
16 -> 18 ;
19 [label="angular_velocity_iqr <= 39.8\nmse = 0.0\nsamples = 2\nvalue = 5.0"] ;
15 -> 19 ;
20 [label="mse = 0.0\nsamples = 1\nvalue = 5.0"] ;
19 -> 20 ;
21 [label="mse = -0.0\nsamples = 1\nvalue = 5.0"] ;
19 -> 21 ;
22 [label="avg_stride_length <= 4.6\nmse = 0.6\nsamples = 80\nvalue = 5.0"] ;
0 -> 22 [labeldistance=2.5, labelangle=-45, headlabel="False"] ;
23 [label="base_tail_lateral_displacement_iqr <= 0.1\nmse = 0.3\nsamples = 53\nvalue = 5.3"] ;
22 -> 23 ;
24 [label="grooming_number_bouts <= 14.5\nmse = 0.2\nsamples = 16\nvalue = 4.8"] ;
23 -> 24 ;
25 [label="avg_tip_tail_lateral_displacement <= 0.5\nmse = 0.1\nsamples = 15\nvalue = 4.9"] ;
24 -> 25 ;
26 [label="mse = 0.0\nsamples = 5\nvalue = 4.7"] ;
25 -> 26 ;
27 [label="mse = 0.0\nsamples = 10\nvalue = 5.0"] ;
25 -> 27 ;
28 [label="mse = -0.0\nsamples = 1\nvalue = 3.6"] ;
24 -> 28 ;
29 [label="dAC_mean <= 0.7\nmse = 0.2\nsamples = 37\nvalue = 5.6"] ;
23 -> 29 ;
30 [label="stride_length_stdev <= 1.3\nmse = 0.1\nsamples = 35\nvalue = 5.6"] ;
29 -> 30 ;
31 [label="mse = 0.0\nsamples = 1\nvalue = 4.0"] ;
30 -> 31 ;
32 [label="mse = 0.1\nsamples = 34\nvalue = 5.7"] ;
30 -> 32 ;
33 [label="dB_mean <= 4.1\nmse = 0.0\nsamples = 2\nvalue = 4.3"] ;
29 -> 33 ;
34 [label="mse = 0.0\nsamples = 1\nvalue = 4.3"] ;
33 -> 34 ;
35 [label="mse = 0.0\nsamples = 1\nvalue = 4.3"] ;
33 -> 35 ;
36 [label="step_width_iqr <= 0.4\nmse = 0.5\nsamples = 27\nvalue = 4.4"] ;
22 -> 36 ;
37 [label="grooming_number_bouts <= 16.0\nmse = 0.3\nsamples = 15\nvalue = 4.8"] ;
36 -> 37 ;
38 [label="median_temporal_symmetry <= 0.1\nmse = 0.1\nsamples = 13\nvalue = 4.9"] ;
37 -> 38 ;
39 [label="mse = 0.2\nsamples = 2\nvalue = 3.9"] ;
38 -> 39 ;
40 [label="mse = 0.0\nsamples = 11\nvalue = 5.0"] ;
38 -> 40 ;
41 [label="nose_lateral_displacement_iqr <= 0.1\nmse = 0.0\nsamples = 2\nvalue = 3.4"] ;
37 -> 41 ;
42 [label="mse = 0.0\nsamples = 1\nvalue = 3.5"] ;
41 -> 42 ;
43 [label="mse = 0.0\nsamples = 1\nvalue = 3.4"] ;
41 -> 43 ;
44 [label="median_length <= 59.4\nmse = 0.4\nsamples = 12\nvalue = 4.0"] ;
36 -> 44 ;
45 [label="limb_duty_factor_iqr <= 0.2\nmse = 0.5\nsamples = 4\nvalue = 4.6"] ;
44 -> 45 ;
46 [label="mse = 0.0\nsamples = 2\nvalue = 3.9"] ;
45 -> 46 ;
47 [label="mse = 0.1\nsamples = 2\nvalue = 5.2"] ;
45 -> 47 ;
48 [label="angular_velocity_stdev <= 39.2\nmse = 0.1\nsamples = 8\nvalue = 3.7"] ;
44 -> 48 ;
49 [label="mse = 0.0\nsamples = 5\nvalue = 3.9"] ;
48 -> 49 ;
50 [label="mse = 0.0\nsamples = 3\nvalue = 3.4"] ;
48 -> 50 ;
}